digraph Tree {
node [shape=box, style="filled, rounded", color="black", fontname=helvetica] ;
edge [fontname=helvetica] ;
0 [label="petal length (cm) <= 2.45\ngini = 0.66\nsamples = 95\nvalue = [61, 50, 39]\nclass = setosa", fillcolor="#fcf1e9"] ;
1 [label="gini = 0.0\nsamples = 38\nvalue = [61, 0, 0]\nclass = setosa", fillcolor="#e58139"] ;
0 -> 1 [labeldistance=2.5, labelangle=45, headlabel="True"] ;
2 [label="petal length (cm) <= 4.75\ngini = 0.49\nsamples = 57\nvalue = [0, 50, 39]\nclass = versicolor", fillcolor="#d3f9e3"] ;
0 -> 2 [labeldistance=2.5, labelangle=-45, headlabel="False"] ;
3 [label="sepal length (cm) <= 4.95\ngini = 0.08\nsamples = 31\nvalue = [0, 47, 2]\nclass = versicolor", fillcolor="#41e686"] ;
2 -> 3 ;
4 [label="petal width (cm) <= 1.35\ngini = 0.48\nsamples = 2\nvalue = [0, 3, 2]\nclass = versicolor", fillcolor="#bdf6d5"] ;
3 -> 4 ;
5 [label="gini = 0.0\nsamples = 1\nvalue = [0, 3, 0]\nclass = versicolor", fillcolor="#39e581"] ;
4 -> 5 ;
6 [label="gini = 0.0\nsamples = 1\nvalue = [0, 0, 2]\nclass = virginica", fillcolor="#8139e5"] ;
4 -> 6 ;
7 [label="gini = 0.0\nsamples = 29\nvalue = [0, 44, 0]\nclass = versicolor", fillcolor="#39e581"] ;
3 -> 7 ;
8 [label="petal width (cm) <= 1.75\ngini = 0.14\nsamples = 26\nvalue = [0, 3, 37]\nclass = virginica", fillcolor="#8b49e7"] ;
2 -> 8 ;
9 [label="sepal width (cm) <= 2.65\ngini = 0.38\nsamples = 3\nvalue = [0, 3, 1]\nclass = versicolor", fillcolor="#7beeab"] ;
8 -> 9 ;
10 [label="gini = 0.0\nsamples = 1\nvalue = [0, 0, 1]\nclass = virginica", fillcolor="#8139e5"] ;
9 -> 10 ;
11 [label="gini = 0.0\nsamples = 2\nvalue = [0, 3, 0]\nclass = versicolor", fillcolor="#39e581"] ;
9 -> 11 ;
12 [label="gini = 0.0\nsamples = 23\nvalue = [0, 0, 36]\nclass = virginica", fillcolor="#8139e5"] ;
8 -> 12 ;
}